<?xml version="1.0"?>
<opencv_storage>
<cascade>
  <stageType>BOOST</stageType>
  <featureType>HAAR</featureType>
  <height>20</height>
  <width>20</width>
  <stageParams>
    <boostType>GAB</boostType>
    <minHitRate>9.9500000476837158e-001</minHitRate>
    <maxFalseAlarm>5.0000000000000000e-001</maxFalseAlarm>
    <weightTrimRate>9.4999999999999996e-001</weightTrimRate>
    <maxDepth>1</maxDepth>
    <maxWeakCount>100</maxWeakCount></stageParams>
  <featureParams>
    <maxCatCount>0</maxCatCount>
    <featSize>1</featSize>
    <mode>ALL</mode></featureParams>
  <stageNum>16</stageNum>
  <stages>
    <!-- stage 0 -->
    <_>
      <maxWeakCount>2</maxWeakCount>
      <stageThreshold>-1.5752498805522919e-001</stageThreshold>
      <weakClassifiers>
        <_>
          <internalNodes>
            0 -1 16 4.6293497085571289e-002</internalNodes>
          <leafValues>
            -9.4545453786849976e-001 9.2941176891326904e-001</leafValues></_>
        <_>
          <internalNodes>
            0 -1 10 1.5826481580734253e-001</internalNodes>
          <leafValues>
            -9.6513754129409790e-001 7.8792953491210938e-001</leafValues></_></weakClassifiers></_>
    <!-- stage 1 -->
    <_>
      <maxWeakCount>2</maxWeakCount>
      <stageThreshold>-2.5103676319122314e-001</stageThreshold>
      <weakClassifiers>
        <_>
          <internalNodes>
            0 -1 32 1.0958489030599594e-002</internalNodes>
          <leafValues>
            -9.7752809524536133e-001 5.8490568399429321e-001</leafValues></_>
        <_>
          <internalNodes>
            0 -1 42 -5.7935848832130432e-002</internalNodes>
          <leafValues>
            7.2649133205413818e-001 -7.8860008716583252e-001</leafValues></_></weakClassifiers></_>
    <!-- stage 2 -->
    <_>
      <maxWeakCount>3</maxWeakCount>
      <stageThreshold>-9.7985178232192993e-001</stageThreshold>
      <weakClassifiers>
        <_>
          <internalNodes>
            0 -1 15 5.3619127720594406e-002</internalNodes>
          <leafValues>
            -8.4466022253036499e-001 6.7391306161880493e-001</leafValues></_>
        <_>
          <internalNodes>
            0 -1 50 -3.1239190138876438e-003</internalNodes>
          <leafValues>
            5.7396370172500610e-001 -7.4145346879959106e-001</leafValues></_>
        <_>
          <internalNodes>
            0 -1 2 1.6595041751861572e-001</internalNodes>
          <leafValues>
            -7.0915526151657104e-001 7.2719919681549072e-001</leafValues></_></weakClassifiers></_>
    <!-- stage 3 -->
    <_>
      <maxWeakCount>3</maxWeakCount>
      <stageThreshold>-8.6169546842575073e-001</stageThreshold>
      <weakClassifiers>
        <_>
          <internalNodes>
            0 -1 12 -1.3789171352982521e-002</internalNodes>
          <leafValues>
            6.1363637447357178e-001 -7.3831772804260254e-001</leafValues></_>
        <_>
          <internalNodes>
            0 -1 33 1.0141039639711380e-001</internalNodes>
          <leafValues>
            -5.3310483694076538e-001 6.8025606870651245e-001</leafValues></_>
        <_>
          <internalNodes>
            0 -1 36 2.8685793280601501e-002</internalNodes>
          <leafValues>
            -8.0363380908966064e-001 4.4238266348838806e-001</leafValues></_></weakClassifiers></_>
    <!-- stage 4 -->
    <_>
      <maxWeakCount>5</maxWeakCount>
      <stageThreshold>-1.0107889175415039e+000</stageThreshold>
      <weakClassifiers>
        <_>
          <internalNodes>
            0 -1 52 2.3893376812338829e-002</internalNodes>
          <leafValues>
            -6.0000002384185791e-001 6.2666666507720947e-001</leafValues></_>
        <_>
          <internalNodes>
            0 -1 45 -2.6510097086429596e-004</internalNodes>
          <leafValues>
            3.9256346225738525e-001 -7.7562642097473145e-001</leafValues></_>
        <_>
          <internalNodes>
            0 -1 56 1.3213308528065681e-002</internalNodes>
          <leafValues>
            -4.9615421891212463e-001 6.6732412576675415e-001</leafValues></_>
        <_>
          <internalNodes>
            0 -1 28 2.1226111799478531e-002</internalNodes>
          <leafValues>
            -6.6357076168060303e-001 5.0240623950958252e-001</leafValues></_>
        <_>
          <internalNodes>
            0 -1 26 -1.1441349051892757e-003</internalNodes>
          <leafValues>
            3.5637259483337402e-001 -8.6130726337432861e-001</leafValues></_></weakClassifiers></_>
    <!-- stage 5 -->
    <_>
      <maxWeakCount>4</maxWeakCount>
      <stageThreshold>-5.0423163175582886e-001</stageThreshold>
      <weakClassifiers>
        <_>
          <internalNodes>
            0 -1 9 3.6277536302804947e-002</internalNodes>
          <leafValues>
            -6.0000002384185791e-001 7.1428573131561279e-001</leafValues></_>
        <_>
          <internalNodes>
            0 -1 29 -6.4165005460381508e-003</internalNodes>
          <leafValues>
            6.0448086261749268e-001 -7.0290809869766235e-001</leafValues></_>
        <_>
          <internalNodes>
            0 -1 54 6.3109220936894417e-003</internalNodes>
          <leafValues>
            -7.1161037683486938e-001 4.6470853686332703e-001</leafValues></_>
        <_>
          <internalNodes>
            0 -1 30 2.4141948670148849e-003</internalNodes>
          <leafValues>
            -8.2494777441024780e-001 3.3396795392036438e-001</leafValues></_></weakClassifiers></_>
    <!-- stage 6 -->
    <_>
      <maxWeakCount>4</maxWeakCount>
      <stageThreshold>-3.9081189036369324e-001</stageThreshold>
      <weakClassifiers>
        <_>
          <internalNodes>
            0 -1 14 2.1449014544487000e-002</internalNodes>
          <leafValues>
            -5.5038762092590332e-001 6.9696968793869019e-001</leafValues></_>
        <_>
          <internalNodes>
            0 -1 27 -2.7160665486007929e-003</internalNodes>
          <leafValues>
            4.5474061369895935e-001 -7.6716464757919312e-001</leafValues></_>
        <_>
          <internalNodes>
            0 -1 41 -6.5968278795480728e-003</internalNodes>
          <leafValues>
            4.5522463321685791e-001 -6.8909162282943726e-001</leafValues></_>
        <_>
          <internalNodes>
            0 -1 17 2.7930183568969369e-004</internalNodes>
          <leafValues>
            -6.6075533628463745e-001 4.7151571512222290e-001</leafValues></_></weakClassifiers></_>
    <!-- stage 7 -->
    <_>
      <maxWeakCount>4</maxWeakCount>
      <stageThreshold>-1.4280356168746948e+000</stageThreshold>
      <weakClassifiers>
        <_>
          <internalNodes>
            0 -1 19 -6.9655235856771469e-003</internalNodes>
          <leafValues>
            5.5555558204650879e-001 -8.3333331346511841e-001</leafValues></_>
        <_>
          <internalNodes>
            0 -1 55 -3.1396795529872179e-003</internalNodes>
          <leafValues>
            8.8836127519607544e-001 -4.8465365171432495e-001</leafValues></_>
        <_>
          <internalNodes>
            0 -1 3 5.5684916675090790e-002</internalNodes>
          <leafValues>
            -5.8777219057083130e-001 6.5530896186828613e-001</leafValues></_>
        <_>
          <internalNodes>
            0 -1 20 3.5033375024795532e-002</internalNodes>
          <leafValues>
            -8.7176173925399780e-001 4.7772359848022461e-001</leafValues></_></weakClassifiers></_>
    <!-- stage 8 -->
    <_>
      <maxWeakCount>4</maxWeakCount>
      <stageThreshold>-1.3027516007423401e-001</stageThreshold>
      <weakClassifiers>
        <_>
          <internalNodes>
            0 -1 53 7.3219416663050652e-003</internalNodes>
          <leafValues>
            -5.2941179275512695e-001 7.9661017656326294e-001</leafValues></_>
        <_>
          <internalNodes>
            0 -1 51 5.5686747655272484e-003</internalNodes>
          <leafValues>
            -6.2870156764984131e-001 5.8446377515792847e-001</leafValues></_>
        <_>
          <internalNodes>
            0 -1 22 -2.4786528199911118e-002</internalNodes>
          <leafValues>
            -9.3887722492218018e-001 3.4120142459869385e-001</leafValues></_>
        <_>
          <internalNodes>
            0 -1 21 1.4234080445021391e-003</internalNodes>
          <leafValues>
            -5.0401616096496582e-001 6.8663674592971802e-001</leafValues></_></weakClassifiers></_>
    <!-- stage 9 -->
    <_>
      <maxWeakCount>4</maxWeakCount>
      <stageThreshold>-2.5643166899681091e-001</stageThreshold>
      <weakClassifiers>
        <_>
          <internalNodes>
            0 -1 6 5.1365651190280914e-002</internalNodes>
          <leafValues>
            -5.6451612710952759e-001 6.3380283117294312e-001</leafValues></_>
        <_>
          <internalNodes>
            0 -1 23 -3.5380967892706394e-004</internalNodes>
          <leafValues>
            3.1055262684822083e-001 -8.7527734041213989e-001</leafValues></_>
        <_>
          <internalNodes>
            0 -1 7 -7.5996704399585724e-003</internalNodes>
          <leafValues>
            7.9424750804901123e-001 -3.6974158883094788e-001</leafValues></_>
        <_>
          <internalNodes>
            0 -1 25 6.6501605324447155e-003</internalNodes>
          <leafValues>
            4.3100979924201965e-001 -7.9671567678451538e-001</leafValues></_></weakClassifiers></_>
    <!-- stage 10 -->
    <_>
      <maxWeakCount>4</maxWeakCount>
      <stageThreshold>-4.3981379270553589e-001</stageThreshold>
      <weakClassifiers>
        <_>
          <internalNodes>
            0 -1 4 1.4730761758983135e-002</internalNodes>
          <leafValues>
            5.5102038383483887e-001 -8.1443297863006592e-001</leafValues></_>
        <_>
          <internalNodes>
            0 -1 13 1.0376129299402237e-002</internalNodes>
          <leafValues>
            -6.3536328077316284e-001 6.5788614749908447e-001</leafValues></_>
        <_>
          <internalNodes>
            0 -1 40 1.0006513446569443e-002</internalNodes>
          <leafValues>
            4.7005477547645569e-001 -8.2571923732757568e-001</leafValues></_>
        <_>
          <internalNodes>
            0 -1 48 -7.4376454576849937e-003</internalNodes>
          <leafValues>
            5.4245233535766602e-001 -6.3226896524429321e-001</leafValues></_></weakClassifiers></_>
    <!-- stage 11 -->
    <_>
      <maxWeakCount>4</maxWeakCount>
      <stageThreshold>-3.1490552425384521e-001</stageThreshold>
      <weakClassifiers>
        <_>
          <internalNodes>
            0 -1 37 -2.5102063082158566e-003</internalNodes>
          <leafValues>
            -7.9381442070007324e-001 5.3061223030090332e-001</leafValues></_>
        <_>
          <internalNodes>
            0 -1 47 -5.6929243728518486e-003</internalNodes>
          <leafValues>
            6.7445898056030273e-001 -6.5153241157531738e-001</leafValues></_>
        <_>
          <internalNodes>
            0 -1 39 5.6707649491727352e-003</internalNodes>
          <leafValues>
            -7.2968047857284546e-001 5.3171080350875854e-001</leafValues></_>
        <_>
          <internalNodes>
            0 -1 49 -2.5782706215977669e-003</internalNodes>
          <leafValues>
            5.9873050451278687e-001 -6.5161913633346558e-001</leafValues></_></weakClassifiers></_>
    <!-- stage 12 -->
    <_>
      <maxWeakCount>4</maxWeakCount>
      <stageThreshold>-4.7466361522674561e-001</stageThreshold>
      <weakClassifiers>
        <_>
          <internalNodes>
            0 -1 8 3.8470126688480377e-002</internalNodes>
          <leafValues>
            -4.8201438784599304e-001 7.5000000000000000e-001</leafValues></_>
        <_>
          <internalNodes>
            0 -1 34 -1.2057134881615639e-003</internalNodes>
          <leafValues>
            5.2170455455780029e-001 -5.9368145465850830e-001</leafValues></_>
        <_>
          <internalNodes>
            0 -1 1 7.1834497153759003e-002</internalNodes>
          <leafValues>
            -8.4926623106002808e-001 3.5921782255172729e-001</leafValues></_>
        <_>
          <internalNodes>
            0 -1 18 7.4819214642047882e-003</internalNodes>
          <leafValues>
            3.3491244912147522e-001 -1.</leafValues></_></weakClassifiers></_>
    <!-- stage 13 -->
    <_>
      <maxWeakCount>3</maxWeakCount>
      <stageThreshold>-1.1759735643863678e-001</stageThreshold>
      <weakClassifiers>
        <_>
          <internalNodes>
            0 -1 11 2.3537748493254185e-003</internalNodes>
          <leafValues>
            1.9424460828304291e-001 -9.2857140302658081e-001</leafValues></_>
        <_>
          <internalNodes>
            0 -1 5 7.4283793568611145e-002</internalNodes>
          <leafValues>
            -6.3936567306518555e-001 4.5465600490570068e-001</leafValues></_>
        <_>
          <internalNodes>
            0 -1 35 2.2453891579061747e-003</internalNodes>
          <leafValues>
            -7.5167059898376465e-001 3.5631805658340454e-001</leafValues></_></weakClassifiers></_>
    <!-- stage 14 -->
    <_>
      <maxWeakCount>5</maxWeakCount>
      <stageThreshold>-8.9288753271102905e-001</stageThreshold>
      <weakClassifiers>
        <_>
          <internalNodes>
            0 -1 43 -7.5170961208641529e-003</internalNodes>
          <leafValues>
            5.3191488981246948e-001 -7.4257427453994751e-001</leafValues></_>
        <_>
          <internalNodes>
            0 -1 44 -6.5356064587831497e-003</internalNodes>
          <leafValues>
            -8.1287485361099243e-001 4.4106310606002808e-001</leafValues></_>
        <_>
          <internalNodes>
            0 -1 38 -2.0436770864762366e-004</internalNodes>
          <leafValues>
            -5.1206660270690918e-001 6.8231564760208130e-001</leafValues></_>
        <_>
          <internalNodes>
            0 -1 0 2.5864928960800171e-001</internalNodes>
          <leafValues>
            -5.4766899347305298e-001 5.5886304378509521e-001</leafValues></_>
        <_>
          <internalNodes>
            0 -1 24 -1.6045071184635162e-002</internalNodes>
          <leafValues>
            7.0072597265243530e-001 -5.7861715555191040e-001</leafValues></_></weakClassifiers></_>
    <!-- stage 15 -->
    <_>
      <maxWeakCount>2</maxWeakCount>
      <stageThreshold>-3.0005000531673431e-002</stageThreshold>
      <weakClassifiers>
        <_>
          <internalNodes>
            0 -1 46 -1.3035312294960022e-002</internalNodes>
          <leafValues>
            1. -5.9420287609100342e-001</leafValues></_>
        <_>
          <internalNodes>
            0 -1 31 -7.9749301075935364e-002</internalNodes>
          <leafValues>
            -9.8214870691299438e-001 5.6419789791107178e-001</leafValues></_></weakClassifiers></_></stages>
  <features>
    <_>
      <rects>
        <_>
          0 2 13 18 -1.</_>
        <_>
          0 8 13 6 3.</_></rects>
      <tilted>0</tilted></_>
    <_>
      <rects>
        <_>
          0 5 15 6 -1.</_>
        <_>
          0 8 15 3 2.</_></rects>
      <tilted>0</tilted></_>
    <_>
      <rects>
        <_>
          0 7 18 6 -1.</_>
        <_>
          6 9 6 2 9.</_></rects>
      <tilted>0</tilted></_>
    <_>
      <rects>
        <_>
          0 7 14 6 -1.</_>
        <_>
          0 9 14 2 3.</_></rects>
      <tilted>0</tilted></_>
    <_>
      <rects>
        <_>
          0 9 17 4 -1.</_>
        <_>
          0 11 17 2 2.</_></rects>
      <tilted>0</tilted></_>
    <_>
      <rects>
        <_>
          1 1 16 6 -1.</_>
        <_>
          5 1 8 6 2.</_></rects>
      <tilted>0</tilted></_>
    <_>
      <rects>
        <_>
          1 3 16 1 -1.</_>
        <_>
          5 7 8 1 2.</_></rects>
      <tilted>1</tilted></_>
    <_>
      <rects>
        <_>
          1 11 3 5 -1.</_>
        <_>
          2 11 1 5 3.</_></rects>
      <tilted>0</tilted></_>
    <_>
      <rects>
        <_>
          2 1 6 4 -1.</_>
        <_>
          5 1 3 4 2.</_></rects>
      <tilted>0</tilted></_>
    <_>
      <rects>
        <_>
          2 3 6 13 -1.</_>
        <_>
          4 3 2 13 3.</_></rects>
      <tilted>0</tilted></_>
    <_>
      <rects>
        <_>
          2 5 15 15 -1.</_>
        <_>
          2 10 15 5 3.</_></rects>
      <tilted>0</tilted></_>
    <_>
      <rects>
        <_>
          3 3 11 2 -1.</_>
        <_>
          3 3 11 1 2.</_></rects>
      <tilted>1</tilted></_>
    <_>
      <rects>
        <_>
          4 1 4 8 -1.</_>
        <_>
          4 1 2 4 2.</_>
        <_>
          6 5 2 4 2.</_></rects>
      <tilted>0</tilted></_>
    <_>
      <rects>
        <_>
          4 3 1 10 -1.</_>
        <_>
          4 8 1 5 2.</_></rects>
      <tilted>0</tilted></_>
    <_>
      <rects>
        <_>
          4 7 3 4 -1.</_>
        <_>
          4 7 3 2 2.</_></rects>
      <tilted>1</tilted></_>
    <_>
      <rects>
        <_>
          4 7 10 8 -1.</_>
        <_>
          4 9 10 4 2.</_></rects>
      <tilted>0</tilted></_>
    <_>
      <rects>
        <_>
          4 7 15 4 -1.</_>
        <_>
          4 9 15 2 2.</_></rects>
      <tilted>0</tilted></_>
    <_>
      <rects>
        <_>
          4 8 2 2 -1.</_>
        <_>
          4 8 1 1 2.</_>
        <_>
          5 9 1 1 2.</_></rects>
      <tilted>0</tilted></_>
    <_>
      <rects>
        <_>
          4 10 10 4 -1.</_>
        <_>
          4 10 5 2 2.</_>
        <_>
          9 12 5 2 2.</_></rects>
      <tilted>0</tilted></_>
    <_>
      <rects>
        <_>
          5 0 4 4 -1.</_>
        <_>
          5 0 2 4 2.</_></rects>
      <tilted>1</tilted></_>
    <_>
      <rects>
        <_>
          5 0 9 10 -1.</_>
        <_>
          8 0 3 10 3.</_></rects>
      <tilted>0</tilted></_>
    <_>
      <rects>
        <_>
          5 2 1 4 -1.</_>
        <_>
          5 3 1 2 2.</_></rects>
      <tilted>0</tilted></_>
    <_>
      <rects>
        <_>
          5 4 10 12 -1.</_>
        <_>
          5 4 5 6 2.</_>
        <_>
          10 10 5 6 2.</_></rects>
      <tilted>0</tilted></_>
    <_>
      <rects>
        <_>
          5 5 6 7 -1.</_>
        <_>
          7 5 2 7 3.</_></rects>
      <tilted>0</tilted></_>
    <_>
      <rects>
        <_>
          5 6 7 4 -1.</_>
        <_>
          5 7 7 2 2.</_></rects>
      <tilted>0</tilted></_>
    <_>
      <rects>
        <_>
          5 8 6 1 -1.</_>
        <_>
          5 8 3 1 2.</_></rects>
      <tilted>1</tilted></_>
    <_>
      <rects>
        <_>
          6 4 3 10 -1.</_>
        <_>
          7 4 1 10 3.</_></rects>
      <tilted>0</tilted></_>
    <_>
      <rects>
        <_>
          6 4 11 2 -1.</_>
        <_>
          6 5 11 1 2.</_></rects>
      <tilted>0</tilted></_>
    <_>
      <rects>
        <_>
          6 6 2 6 -1.</_>
        <_>
          6 9 2 3 2.</_></rects>
      <tilted>0</tilted></_>
    <_>
      <rects>
        <_>
          6 6 3 4 -1.</_>
        <_>
          6 7 3 2 2.</_></rects>
      <tilted>0</tilted></_>
    <_>
      <rects>
        <_>
          6 8 1 12 -1.</_>
        <_>
          6 11 1 6 2.</_></rects>
      <tilted>0</tilted></_>
    <_>
      <rects>
        <_>
          6 8 13 8 -1.</_>
        <_>
          6 12 13 4 2.</_></rects>
      <tilted>0</tilted></_>
    <_>
      <rects>
        <_>
          7 0 6 9 -1.</_>
        <_>
          9 0 2 9 3.</_></rects>
      <tilted>0</tilted></_>
    <_>
      <rects>
        <_>
          7 5 12 3 -1.</_>
        <_>
          10 8 6 3 2.</_></rects>
      <tilted>1</tilted></_>
    <_>
      <rects>
        <_>
          7 8 4 2 -1.</_>
        <_>
          7 8 2 1 2.</_>
        <_>
          9 9 2 1 2.</_></rects>
      <tilted>0</tilted></_>
    <_>
      <rects>
        <_>
          8 5 2 5 -1.</_>
        <_>
          9 5 1 5 2.</_></rects>
      <tilted>0</tilted></_>
    <_>
      <rects>
        <_>
          8 7 8 6 -1.</_>
        <_>
          8 9 8 2 3.</_></rects>
      <tilted>0</tilted></_>
    <_>
      <rects>
        <_>
          8 9 4 3 -1.</_>
        <_>
          8 9 2 3 2.</_></rects>
      <tilted>1</tilted></_>
    <_>
      <rects>
        <_>
          9 0 4 2 -1.</_>
        <_>
          9 0 2 1 2.</_>
        <_>
          11 1 2 1 2.</_></rects>
      <tilted>0</tilted></_>
    <_>
      <rects>
        <_>
          9 5 6 12 -1.</_>
        <_>
          9 5 3 6 2.</_>
        <_>
          12 11 3 6 2.</_></rects>
      <tilted>0</tilted></_>
    <_>
      <rects>
        <_>
          9 9 2 9 -1.</_>
        <_>
          9 12 2 3 3.</_></rects>
      <tilted>0</tilted></_>
    <_>
      <rects>
        <_>
          10 5 2 3 -1.</_>
        <_>
          10 5 1 3 2.</_></rects>
      <tilted>1</tilted></_>
    <_>
      <rects>
        <_>
          10 5 6 6 -1.</_>
        <_>
          12 7 2 2 9.</_></rects>
      <tilted>0</tilted></_>
    <_>
      <rects>
        <_>
          10 6 10 4 -1.</_>
        <_>
          10 7 10 2 2.</_></rects>
      <tilted>0</tilted></_>
    <_>
      <rects>
        <_>
          10 8 1 12 -1.</_>
        <_>
          10 12 1 4 3.</_></rects>
      <tilted>0</tilted></_>
    <_>
      <rects>
        <_>
          11 7 2 10 -1.</_>
        <_>
          12 7 1 10 2.</_></rects>
      <tilted>0</tilted></_>
    <_>
      <rects>
        <_>
          12 3 2 10 -1.</_>
        <_>
          12 3 1 10 2.</_></rects>
      <tilted>1</tilted></_>
    <_>
      <rects>
        <_>
          12 4 6 1 -1.</_>
        <_>
          15 4 3 1 2.</_></rects>
      <tilted>0</tilted></_>
    <_>
      <rects>
        <_>
          12 5 1 6 -1.</_>
        <_>
          12 7 1 2 3.</_></rects>
      <tilted>0</tilted></_>
    <_>
      <rects>
        <_>
          12 18 8 1 -1.</_>
        <_>
          14 18 4 1 2.</_></rects>
      <tilted>0</tilted></_>
    <_>
      <rects>
        <_>
          13 0 6 4 -1.</_>
        <_>
          13 0 3 2 2.</_>
        <_>
          16 2 3 2 2.</_></rects>
      <tilted>0</tilted></_>
    <_>
      <rects>
        <_>
          13 0 4 6 -1.</_>
        <_>
          13 3 4 3 2.</_></rects>
      <tilted>0</tilted></_>
    <_>
      <rects>
        <_>
          15 0 1 20 -1.</_>
        <_>
          15 5 1 10 2.</_></rects>
      <tilted>0</tilted></_>
    <_>
      <rects>
        <_>
          15 3 3 3 -1.</_>
        <_>
          14 4 3 1 3.</_></rects>
      <tilted>1</tilted></_>
    <_>
      <rects>
        <_>
          16 6 3 6 -1.</_>
        <_>
          17 7 1 6 3.</_></rects>
      <tilted>1</tilted></_>
    <_>
      <rects>
        <_>
          16 12 3 5 -1.</_>
        <_>
          17 12 1 5 3.</_></rects>
      <tilted>0</tilted></_>
    <_>
      <rects>
        <_>
          17 0 1 6 -1.</_>
        <_>
          15 2 1 2 3.</_></rects>
      <tilted>1</tilted></_></features></cascade>
</opencv_storage>
